{
  "model_config": {
    "version": "1.0",
    "layers": [],
    "loss_function": "BinaryCrossEntropy"
  },
  "layers": [
    {
      "layer_index": 0,
      "layer_type": "DenseLayer",
      "layer_name": "dense_1",
      "input_size": 2,
      "output_size": 16,
      "weights_shape": [
        2,
        16
      ],
      "biases_shape": [
        1,
        16
      ],
      "weights": [
        [
          0.09009390070290776,
          -0.024313652015299312,
          -0.02039118556688585,
          0.03969889093109919,
          -0.07431970182034868,
          0.11382389463462994,
          0.11588288796332896,
          -0.05687369274461418,
          -0.07523177849097788,
          0.06080779078047167,
          -0.07056992562347779,
          -0.09072839926873867,
          0.11431623391908777,
          -0.019286394517603556,
          -0.0907759843149857,
          -0.01689910773419673
        ],
        [
          -0.036679498558434116,
          0.07525359201788404,
          0.06948318123982093,
          -0.08466731399503832,
          0.07278898852008059,
          -0.10823572057364905,
          -0.1097660432697334,
          0.0383055527754269,
          0.07039468463553615,
          -0.02376591016876764,
          0.0732498481581745,
          0.03856222129333389,
          -0.10818289091012936,
          0.06223740324839674,
          0.03550486182441541,
          0.05741562324363526
        ]
      ],
      "biases": [
        [
          -8.994676748211274e-18,
          -2.343774046370545e-18,
          1.3899234682038932e-17,
          -1.5088435058666098e-17,
          1.0956405054052264e-17,
          1.7690113696816633e-17,
          2.075098583633265e-17,
          -1.7615981373272927e-17,
          -2.1300235880650196e-17,
          -5.161954305839263e-18,
          -1.8396742462734028e-17,
          1.1242651368247412e-17,
          5.904565031356047e-18,
          -3.8087344693057955e-18,
          1.567935912398855e-17,
          -6.126690951444028e-18
        ]
      ],
      "num_parameters": 48
    },
    {
      "layer_index": 1,
      "layer_type": "BatchNormLayer",
      "layer_name": "batch_norm_1",
      "input_shape": 16,
      "epsilon": 1e-05,
      "momentum": 0.9,
      "gamma_shape": [
        16
      ],
      "beta_shape": [
        16
      ],
      "gamma": [
        1.001031606418643,
        0.9973939220587043,
        0.997627930107107,
        1.0000650063928802,
        0.9967286196703216,
        1.0022134992070688,
        1.0020162625779039,
        0.9960332573562113,
        0.9968662774136277,
        0.9966553867693215,
        0.9971265482573222,
        1.0001957108979824,
        1.0018394293417763,
        0.9969286462052371,
        1.0006821023706787,
        0.9969753146531626
      ],
      "beta": [
        0.01113455609633719,
        0.009125618934663928,
        -0.0013351938538955874,
        0.007277974718809188,
        0.06973653875202775,
        0.09463358109685052,
        0.10956207733684116,
        0.02545093498216342,
        0.06314404253489343,
        0.006900590272947254,
        0.06198844746013053,
        0.022127148321318603,
        0.1057028708106753,
        0.005783905937992982,
        0.018291427168049497,
        -0.0023389915060527274
      ],
      "running_mean": [
        -0.0013257418634246892,
        0.0009297243974637148,
        0.0008205273122837212,
        -0.001178629956932059,
        0.0015495071119257502,
        -0.002380691103882578,
        -0.002420398989291007,
        0.001029806521920166,
        0.0016392204166521863,
        -0.0008697355269916359,
        0.001550641954376871,
        0.001421422599338461,
        -0.002397426010399788,
        0.0007696430354711656,
        0.001390792904355973,
        0.0006783765902120492
      ],
      "running_var": [
        0.009026881453399214,
        0.005958271746615141,
        0.004998057215723845,
        0.008339499806116781,
        0.010212363801732457,
        0.02334002248509458,
        0.024106288781798837,
        0.004451346855204084,
        0.009996147920196492,
        0.0040638777142134866,
        0.00977445693402402,
        0.00928608567896202,
        0.02343645246857015,
        0.004042323177601591,
        0.009092003097297937,
        0.003410468729829679
      ],
      "num_parameters": 32
    },
    {
      "layer_index": 2,
      "layer_type": "ReLU",
      "layer_name": "relu_2",
      "num_parameters": 0
    },
    {
      "layer_index": 3,
      "layer_type": "DenseLayer",
      "layer_name": "dense_2",
      "input_size": 16,
      "output_size": 8,
      "weights_shape": [
        16,
        8
      ],
      "biases_shape": [
        1,
        8
      ],
      "weights": [
        [
          -0.05227411303715748,
          -0.025884101184082606,
          0.004811671243727465,
          -0.006439349398758339,
          0.01639488150386564,
          -0.00015946011064841789,
          -0.06025783353030841,
          -0.05027331840597079
        ],
        [
          -0.004585979909913057,
          -0.016843402446588863,
          -0.018999251823360232,
          -0.021998697041646743,
          -0.020933242264044607,
          -0.022979575776926598,
          0.012116206349814444,
          -0.007281589193901174
        ],
        [
          0.0017058029288858825,
          -0.02049130458524747,
          -0.02845109797181074,
          -0.018376766862209095,
          -0.010432107494222713,
          -0.024822707386036195,
          -0.013584040128568247,
          -0.006207453927882777
        ],
        [
          -0.037033483635928496,
          -0.0013496906141988578,
          -0.007383860343580267,
          -0.028837787968119904,
          0.025406825239743944,
          -0.01228267143784073,
          -0.03985547148555598,
          -0.0598510650052127
        ],
        [
          0.05341313152973072,
          -0.03255292118364848,
          -0.013862574435325408,
          -0.005595858553452071,
          -0.02323394085188339,
          -0.026138130170194385,
          0.027313633924432548,
          0.05566113195984803
        ],
        [
          -0.0585927673793987,
          0.0583272903278503,
          0.046168151269204954,
          0.053596810185370956,
          0.050621886098009085,
          0.04282987270303026,
          -0.03768144560226417,
          -0.05007189062687898
        ],
        [
          -0.055235017088151005,
          0.05093270970529783,
          0.055353949222245256,
          0.04898802630304973,
          0.03620541117669714,
          0.044648908995468466,
          -0.0671513066080472,
          -0.060012306840033496
        ],
        [
          0.008499486177972157,
          -0.013795025568231601,
          -0.009516352355935497,
          0.0009756315919013572,
          -0.014262305749126469,
          -0.013628982599775068,
          0.03811857793931188,
          0.003020309477793687
        ],
        [
          0.048767549417563366,
          -0.015669053213398558,
          -0.014866032253144602,
          0.008649414067467755,
          -0.037210522691423845,
          -0.015256853956153478,
          0.043102853550542546,
          0.048938451919159354
        ],
        [
          -0.013479218002290048,
          -0.0013387407612595501,
          0.005538206501405992,
          0.00532176986773188,
          0.003407865386537325,
          -0.008167278723577911,
          -0.029811093619327426,
          -0.03215123167430454
        ],
        [
          0.05338465951119375,
          -0.010739529088505124,
          -0.014254348644245332,
          -0.020665651975814985,
          0.00017374679324387967,
          -0.005431120908396629,
          0.060982887034353346,
          0.03684501899881898
        ],
        [
          -0.0007373343985530426,
          -0.043485089997452986,
          -0.040418961073056495,
          -0.04547326385480606,
          -0.04725841457620326,
          -0.02591152130778612,
          -0.028066243367879235,
          0.012963980708760732
        ],
        [
          -0.07622657707980215,
          0.052722926522132896,
          0.03215241629176112,
          0.04514839887880451,
          0.034412505985307845,
          0.060470692548467125,
          -0.06414775176042815,
          -0.036876868419643806
        ],
        [
          0.0012928753427302437,
          -0.008507598439815916,
          -0.014561697079747572,
          -0.012768433332813781,
          -0.016087108979702225,
          -0.020217622880414867,
          0.003916557313979164,
          -0.002835012096087732
        ],
        [
          -0.0238981873412148,
          -0.03310058384430519,
          -0.041121702013027533,
          -0.05068381331015099,
          -0.03622538745531311,
          -0.04992559701417015,
          -0.010382206510429067,
          -0.00019139527285245354
        ],
        [
          -0.0007401827658100457,
          -0.017799062442095153,
          -0.01729383520285027,
          -0.015507180321334932,
          -0.013054211777037925,
          -0.010139085740865165,
          -0.00504185641127537,
          -0.004281840494518508
        ]
      ],
      "biases": [
        [
          -2.836401632230052e-17,
          -1.9298256569155804e-17,
          -1.1101146044079095e-17,
          4.026577790812453e-17,
          -2.6259376617598955e-18,
          1.7363362267083812e-17,
          -4.2124642532850926e-17,
          4.245281697793509e-17
        ]
      ],
      "num_parameters": 136
    },
    {
      "layer_index": 4,
      "layer_type": "BatchNormLayer",
      "layer_name": "batch_norm_4",
      "input_shape": 8,
      "epsilon": 1e-05,
      "momentum": 0.9,
      "gamma_shape": [
        8
      ],
      "beta_shape": [
        8
      ],
      "gamma": [
        1.2479196223683726,
        1.1553962164516285,
        1.1380906455723923,
        1.1420336136869107,
        1.1496185894295685,
        1.1436929648487617,
        1.2321934911591272,
        1.2209466730178824
      ],
      "beta": [
        0.30359200972668937,
        0.18769047189653162,
        0.16930647621562922,
        0.1688716889049647,
        0.1867910972974274,
        0.17463110652336536,
        0.27767558624845307,
        0.25563659503983366
      ],
      "running_mean": [
        -0.06640029440410349,
        -0.03264146081803648,
        -0.03067565406729472,
        -0.023788319943463424,
        -0.02233075732503,
        -0.0347367149810021,
        -0.07372212228199523,
        -0.06364077030760996
      ],
      "running_var": [
        0.051912092519631116,
        0.03166295899878861,
        0.03053675014291222,
        0.022910648417334784,
        0.03673671468070667,
        0.0298842141165764,
        0.05064461871969941,
        0.04920920523732577
      ],
      "num_parameters": 16
    },
    {
      "layer_index": 5,
      "layer_type": "ReLU",
      "layer_name": "relu_5",
      "num_parameters": 0
    },
    {
      "layer_index": 6,
      "layer_type": "DenseLayer",
      "layer_name": "dense_3",
      "input_size": 8,
      "output_size": 1,
      "weights_shape": [
        8,
        1
      ],
      "biases_shape": [
        1,
        1
      ],
      "weights": [
        [
          -0.8061989987210838
        ],
        [
          0.6089326184533043
        ],
        [
          0.5694479200515886
        ],
        [
          0.5771687452296528
        ],
        [
          0.5974429672529031
        ],
        [
          0.5821629217160035
        ],
        [
          -0.7719325323721288
        ],
        [
          -0.7460636621136589
        ]
      ],
      "biases": [
        [
          -0.19537264334427726
        ]
      ],
      "num_parameters": 9
    },
    {
      "layer_index": 7,
      "layer_type": "Sigmoid",
      "layer_name": "sigmoid_7",
      "num_parameters": 0
    }
  ]
}